digraph Tree {
node [shape=box] ;
0 [label="X[0] <= 0.5\ngini = 0.455\nsamples = 100\nvalue = [65, 35]"] ;
1 [label="X[5] <= 0.5\ngini = 0.5\nsamples = 64\nvalue = [32, 32]"] ;
0 -> 1 [labeldistance=2.5, labelangle=45, headlabel="True"] ;
2 [label="X[8] <= 0.5\ngini = 0.334\nsamples = 33\nvalue = [7, 26]"] ;
1 -> 2 ;
3 [label="gini = 0.0\nsamples = 7\nvalue = [7, 0]"] ;
2 -> 3 ;
4 [label="gini = 0.0\nsamples = 26\nvalue = [0, 26]"] ;
2 -> 4 ;
5 [label="X[1] <= 0.5\ngini = 0.312\nsamples = 31\nvalue = [25, 6]"] ;
1 -> 5 ;
6 [label="gini = 0.0\nsamples = 6\nvalue = [0, 6]"] ;
5 -> 6 ;
7 [label="gini = 0.0\nsamples = 25\nvalue = [25, 0]"] ;
5 -> 7 ;
8 [label="X[1] <= 0.5\ngini = 0.153\nsamples = 36\nvalue = [33, 3]"] ;
0 -> 8 [labeldistance=2.5, labelangle=-45, headlabel="False"] ;
9 [label="X[5] <= 0.5\ngini = 0.49\nsamples = 7\nvalue = [4, 3]"] ;
8 -> 9 ;
10 [label="gini = 0.0\nsamples = 4\nvalue = [4, 0]"] ;
9 -> 10 ;
11 [label="gini = 0.0\nsamples = 3\nvalue = [0, 3]"] ;
9 -> 11 ;
12 [label="gini = 0.0\nsamples = 29\nvalue = [29, 0]"] ;
8 -> 12 ;
}